<?xml version="1.0"?>
<opencv_storage>
<cascade>
  <stageType>BOOST</stageType>
  <featureType>HAAR</featureType>
  <height>20</height>
  <width>20</width>
  <stageParams>
    <boostType>GAB</boostType>
    <minHitRate>9.9900001287460327e-01</minHitRate>
    <maxFalseAlarm>5.0000000000000000e-01</maxFalseAlarm>
    <weightTrimRate>9.4999999999999996e-01</weightTrimRate>
    <maxDepth>1</maxDepth>
    <maxWeakCount>100</maxWeakCount></stageParams>
  <featureParams>
    <maxCatCount>0</maxCatCount>
    <featSize>1</featSize>
    <mode>ALL</mode></featureParams>
  <stageNum>10</stageNum>
  <stages>
    <!-- stage 0 -->
    <_>
      <maxWeakCount>5</maxWeakCount>
      <stageThreshold>-1.1580164432525635e+00</stageThreshold>
      <weakClassifiers>
        <_>
          <internalNodes>
            0 -1 28 4.1405726224184036e-02</internalNodes>
          <leafValues>
            -9.1623038053512573e-01 8.3732056617736816e-01</leafValues></_>
        <_>
          <internalNodes>
            0 -1 31 5.9560470283031464e-02</internalNodes>
          <leafValues>
            -6.5608501434326172e-01 8.4816986322402954e-01</leafValues></_>
        <_>
          <internalNodes>
            0 -1 41 -5.1135430112481117e-03</internalNodes>
          <leafValues>
            5.2394765615463257e-01 -9.8810642957687378e-01</leafValues></_>
        <_>
          <internalNodes>
            0 -1 19 7.7439351007342339e-03</internalNodes>
          <leafValues>
            -7.1646535396575928e-01 7.1684122085571289e-01</leafValues></_>
        <_>
          <internalNodes>
            0 -1 45 -7.9423189163208008e-03</internalNodes>
          <leafValues>
            6.0681658983230591e-01 -7.3039895296096802e-01</leafValues></_></weakClassifiers></_>
    <!-- stage 1 -->
    <_>
      <maxWeakCount>5</maxWeakCount>
      <stageThreshold>-1.0528242588043213e+00</stageThreshold>
      <weakClassifiers>
        <_>
          <internalNodes>
            0 -1 26 1.8826371431350708e-01</internalNodes>
          <leafValues>
            -8.1508517265319824e-01 8.6118251085281372e-01</leafValues></_>
        <_>
          <internalNodes>
            0 -1 12 2.2694388031959534e-01</internalNodes>
          <leafValues>
            -6.5277183055877686e-01 7.0079928636550903e-01</leafValues></_>
        <_>
          <internalNodes>
            0 -1 13 -4.7112572938203812e-03</internalNodes>
          <leafValues>
            5.2762550115585327e-01 -7.3665744066238403e-01</leafValues></_>
        <_>
          <internalNodes>
            0 -1 10 1.6766823828220367e-02</internalNodes>
          <leafValues>
            -5.8065104484558105e-01 6.3057899475097656e-01</leafValues></_>
        <_>
          <internalNodes>
            0 -1 24 1.1395929614081979e-03</internalNodes>
          <leafValues>
            -6.9827800989151001e-01 5.2111113071441650e-01</leafValues></_></weakClassifiers></_>
    <!-- stage 2 -->
    <_>
      <maxWeakCount>5</maxWeakCount>
      <stageThreshold>-1.0707743167877197e+00</stageThreshold>
      <weakClassifiers>
        <_>
          <internalNodes>
            0 -1 54 4.0997281670570374e-02</internalNodes>
          <leafValues>
            -7.3200994729995728e-01 7.4307304620742798e-01</leafValues></_>
        <_>
          <internalNodes>
            0 -1 5 1.8858881667256355e-02</internalNodes>
          <leafValues>
            -6.2299442291259766e-01 7.3105233907699585e-01</leafValues></_>
        <_>
          <internalNodes>
            0 -1 43 3.5726852715015411e-02</internalNodes>
          <leafValues>
            -7.3629766702651978e-01 5.1541858911514282e-01</leafValues></_>
        <_>
          <internalNodes>
            0 -1 53 1.3384400866925716e-02</internalNodes>
          <leafValues>
            -5.4817807674407959e-01 5.9118402004241943e-01</leafValues></_>
        <_>
          <internalNodes>
            0 -1 51 6.2470353441312909e-05</internalNodes>
          <leafValues>
            -8.6919373273849487e-01 4.2934364080429077e-01</leafValues></_></weakClassifiers></_>
    <!-- stage 3 -->
    <_>
      <maxWeakCount>5</maxWeakCount>
      <stageThreshold>-1.2117192745208740e+00</stageThreshold>
      <weakClassifiers>
        <_>
          <internalNodes>
            0 -1 36 -5.1288954913616180e-02</internalNodes>
          <leafValues>
            7.8835976123809814e-01 -7.0616114139556885e-01</leafValues></_>
        <_>
          <internalNodes>
            0 -1 35 -2.4035165086388588e-02</internalNodes>
          <leafValues>
            5.5677914619445801e-01 -6.4963036775588989e-01</leafValues></_>
        <_>
          <internalNodes>
            0 -1 62 -1.4092022320255637e-03</internalNodes>
          <leafValues>
            4.7206208109855652e-01 -7.5511556863784790e-01</leafValues></_>
        <_>
          <internalNodes>
            0 -1 18 9.5159128308296204e-02</internalNodes>
          <leafValues>
            -7.3501646518707275e-01 4.6640646457672119e-01</leafValues></_>
        <_>
          <internalNodes>
            0 -1 32 -5.4873339831829071e-03</internalNodes>
          <leafValues>
            4.3278139829635620e-01 -6.9288569688796997e-01</leafValues></_></weakClassifiers></_>
    <!-- stage 4 -->
    <_>
      <maxWeakCount>7</maxWeakCount>
      <stageThreshold>-1.7624607086181641e+00</stageThreshold>
      <weakClassifiers>
        <_>
          <internalNodes>
            0 -1 20 3.7884198129177094e-02</internalNodes>
          <leafValues>
            -8.2389938831329346e-01 5.4356849193572998e-01</leafValues></_>
        <_>
          <internalNodes>
            0 -1 37 -2.8409160673618317e-02</internalNodes>
          <leafValues>
            6.6865617036819458e-01 -5.7845938205718994e-01</leafValues></_>
        <_>
          <internalNodes>
            0 -1 4 4.0890108793973923e-03</internalNodes>
          <leafValues>
            -5.4040104150772095e-01 5.1109820604324341e-01</leafValues></_>
        <_>
          <internalNodes>
            0 -1 38 -9.4161339802667499e-04</internalNodes>
          <leafValues>
            -8.3008944988250732e-01 3.3927080035209656e-01</leafValues></_>
        <_>
          <internalNodes>
            0 -1 58 -3.0445992015302181e-03</internalNodes>
          <leafValues>
            2.8850978612899780e-01 -9.0587133169174194e-01</leafValues></_>
        <_>
          <internalNodes>
            0 -1 56 -3.2304672640748322e-04</internalNodes>
          <leafValues>
            3.6755889654159546e-01 -6.7335677146911621e-01</leafValues></_>
        <_>
          <internalNodes>
            0 -1 17 5.3153922781348228e-03</internalNodes>
          <leafValues>
            -9.7424650192260742e-01 2.2587531805038452e-01</leafValues></_></weakClassifiers></_>
    <!-- stage 5 -->
    <_>
      <maxWeakCount>9</maxWeakCount>
      <stageThreshold>-1.6685744524002075e+00</stageThreshold>
      <weakClassifiers>
        <_>
          <internalNodes>
            0 -1 36 -5.8580316603183746e-02</internalNodes>
          <leafValues>
            6.5775400400161743e-01 -5.7746475934982300e-01</leafValues></_>
        <_>
          <internalNodes>
            0 -1 57 -1.0784653015434742e-02</internalNodes>
          <leafValues>
            5.8990615606307983e-01 -5.6226283311843872e-01</leafValues></_>
        <_>
          <internalNodes>
            0 -1 11 6.2193097546696663e-03</internalNodes>
          <leafValues>
            -4.4044390320777893e-01 7.2022622823715210e-01</leafValues></_>
        <_>
          <internalNodes>
            0 -1 47 4.9807392060756683e-03</internalNodes>
          <leafValues>
            3.2581877708435059e-01 -7.7252703905105591e-01</leafValues></_>
        <_>
          <internalNodes>
            0 -1 55 3.0837792437523603e-03</internalNodes>
          <leafValues>
            -8.3397477865219116e-01 2.4959857761859894e-01</leafValues></_>
        <_>
          <internalNodes>
            0 -1 23 -1.9093190785497427e-03</internalNodes>
          <leafValues>
            2.1232271194458008e-01 -7.9405063390731812e-01</leafValues></_>
        <_>
          <internalNodes>
            0 -1 63 -1.2158618483226746e-04</internalNodes>
          <leafValues>
            3.4710487723350525e-01 -7.0538955926895142e-01</leafValues></_>
        <_>
          <internalNodes>
            0 -1 1 8.1416759639978409e-03</internalNodes>
          <leafValues>
            -4.6175825595855713e-01 6.3349080085754395e-01</leafValues></_>
        <_>
          <internalNodes>
            0 -1 39 9.5107080414891243e-04</internalNodes>
          <leafValues>
            3.2208368182182312e-01 -8.4606480598449707e-01</leafValues></_></weakClassifiers></_>
    <!-- stage 6 -->
    <_>
      <maxWeakCount>7</maxWeakCount>
      <stageThreshold>-1.2765573263168335e+00</stageThreshold>
      <weakClassifiers>
        <_>
          <internalNodes>
            0 -1 50 1.0743378102779388e-01</internalNodes>
          <leafValues>
            -5.9433960914611816e-01 6.7021274566650391e-01</leafValues></_>
        <_>
          <internalNodes>
            0 -1 25 1.1530556716024876e-02</internalNodes>
          <leafValues>
            -3.7085604667663574e-01 8.4371918439865112e-01</leafValues></_>
        <_>
          <internalNodes>
            0 -1 15 3.4283947199583054e-02</internalNodes>
          <leafValues>
            -6.1068993806838989e-01 4.5835030078887939e-01</leafValues></_>
        <_>
          <internalNodes>
            0 -1 22 1.1951019987463951e-02</internalNodes>
          <leafValues>
            -9.7421717643737793e-01 2.4913366138935089e-01</leafValues></_>
        <_>
          <internalNodes>
            0 -1 52 -1.7217564163729548e-04</internalNodes>
          <leafValues>
            2.8739044070243835e-01 -7.8172528743743896e-01</leafValues></_>
        <_>
          <internalNodes>
            0 -1 8 -1.5431647002696991e-01</internalNodes>
          <leafValues>
            5.1695501804351807e-01 -4.6886551380157471e-01</leafValues></_>
        <_>
          <internalNodes>
            0 -1 59 2.4195970036089420e-03</internalNodes>
          <leafValues>
            -8.9541256427764893e-01 3.1496489048004150e-01</leafValues></_></weakClassifiers></_>
    <!-- stage 7 -->
    <_>
      <maxWeakCount>7</maxWeakCount>
      <stageThreshold>-1.2166666984558105e+00</stageThreshold>
      <weakClassifiers>
        <_>
          <internalNodes>
            0 -1 6 1.4978139661252499e-02</internalNodes>
          <leafValues>
            -7.5384616851806641e-01 5.1578944921493530e-01</leafValues></_>
        <_>
          <internalNodes>
            0 -1 42 -2.1172069013118744e-02</internalNodes>
          <leafValues>
            6.3111972808837891e-01 -5.3621023893356323e-01</leafValues></_>
        <_>
          <internalNodes>
            0 -1 40 -1.3670456595718861e-02</internalNodes>
          <leafValues>
            6.4068055152893066e-01 -4.4179981946945190e-01</leafValues></_>
        <_>
          <internalNodes>
            0 -1 61 -5.6441011111019179e-05</internalNodes>
          <leafValues>
            3.5572695732116699e-01 -7.8430902957916260e-01</leafValues></_>
        <_>
          <internalNodes>
            0 -1 27 -3.2703537726774812e-05</internalNodes>
          <leafValues>
            2.4937561154365540e-01 -8.4146773815155029e-01</leafValues></_>
        <_>
          <internalNodes>
            0 -1 60 -1.6118090134114027e-03</internalNodes>
          <leafValues>
            2.7027043700218201e-01 -7.5764656066894531e-01</leafValues></_>
        <_>
          <internalNodes>
            0 -1 2 -1.5199999511241913e-01</internalNodes>
          <leafValues>
            6.7269456386566162e-01 -3.6018341779708862e-01</leafValues></_></weakClassifiers></_>
    <!-- stage 8 -->
    <_>
      <maxWeakCount>8</maxWeakCount>
      <stageThreshold>-1.7437669038772583e+00</stageThreshold>
      <weakClassifiers>
        <_>
          <internalNodes>
            0 -1 49 8.6711943149566650e-02</internalNodes>
          <leafValues>
            -6.0891091823577881e-01 6.2121212482452393e-01</leafValues></_>
        <_>
          <internalNodes>
            0 -1 7 2.4287983775138855e-02</internalNodes>
          <leafValues>
            -4.8306334018707275e-01 6.3264554738998413e-01</leafValues></_>
        <_>
          <internalNodes>
            0 -1 48 -3.0528141651302576e-03</internalNodes>
          <leafValues>
            4.4876670837402344e-01 -5.3388506174087524e-01</leafValues></_>
        <_>
          <internalNodes>
            0 -1 46 4.4144643470644951e-03</internalNodes>
          <leafValues>
            2.5489294528961182e-01 -9.0673172473907471e-01</leafValues></_>
        <_>
          <internalNodes>
            0 -1 9 3.6935991374775767e-04</internalNodes>
          <leafValues>
            -8.9665985107421875e-01 2.3949752748012543e-01</leafValues></_>
        <_>
          <internalNodes>
            0 -1 34 -1.5518892556428909e-02</internalNodes>
          <leafValues>
            4.0309628844261169e-01 -5.4815590381622314e-01</leafValues></_>
        <_>
          <internalNodes>
            0 -1 21 -1.4967677183449268e-02</internalNodes>
          <leafValues>
            6.3464421033859253e-01 -3.6656036972999573e-01</leafValues></_>
        <_>
          <internalNodes>
            0 -1 64 -1.9545841496437788e-03</internalNodes>
          <leafValues>
            -7.7067059278488159e-01 3.0241817235946655e-01</leafValues></_></weakClassifiers></_>
    <!-- stage 9 -->
    <_>
      <maxWeakCount>8</maxWeakCount>
      <stageThreshold>-1.3722541332244873e+00</stageThreshold>
      <weakClassifiers>
        <_>
          <internalNodes>
            0 -1 29 -9.8708719015121460e-03</internalNodes>
          <leafValues>
            8.1045752763748169e-01 -5.0202429294586182e-01</leafValues></_>
        <_>
          <internalNodes>
            0 -1 16 -7.9481109976768494e-02</internalNodes>
          <leafValues>
            5.7974421977996826e-01 -5.2039325237274170e-01</leafValues></_>
        <_>
          <internalNodes>
            0 -1 14 3.6849777679890394e-03</internalNodes>
          <leafValues>
            -4.2083123326301575e-01 6.1459934711456299e-01</leafValues></_>
        <_>
          <internalNodes>
            0 -1 30 -2.8650560416281223e-03</internalNodes>
          <leafValues>
            2.7877110242843628e-01 -8.9678341150283813e-01</leafValues></_>
        <_>
          <internalNodes>
            0 -1 3 2.1046213805675507e-04</internalNodes>
          <leafValues>
            -8.2162368297576904e-01 3.3912384510040283e-01</leafValues></_>
        <_>
          <internalNodes>
            0 -1 33 -1.7006389796733856e-02</internalNodes>
          <leafValues>
            8.7312090396881104e-01 -3.5259276628494263e-01</leafValues></_>
        <_>
          <internalNodes>
            0 -1 44 1.2697659432888031e-02</internalNodes>
          <leafValues>
            -4.8492419719696045e-01 4.3359085917472839e-01</leafValues></_>
        <_>
          <internalNodes>
            0 -1 0 -3.3091064542531967e-03</internalNodes>
          <leafValues>
            4.1593363881111145e-01 -5.9325546026229858e-01</leafValues></_></weakClassifiers></_></stages>
  <features>
    <_>
      <rects>
        <_>
          0 0 6 8 -1.</_>
        <_>
          0 0 3 4 2.</_>
        <_>
          3 4 3 4 2.</_></rects>
      <tilted>0</tilted></_>
    <_>
      <rects>
        <_>
          0 0 8 1 -1.</_>
        <_>
          4 0 4 1 2.</_></rects>
      <tilted>0</tilted></_>
    <_>
      <rects>
        <_>
          0 2 12 6 -1.</_>
        <_>
          4 4 4 2 9.</_></rects>
      <tilted>0</tilted></_>
    <_>
      <rects>
        <_>
          0 4 3 8 -1.</_>
        <_>
          0 6 3 4 2.</_></rects>
      <tilted>0</tilted></_>
    <_>
      <rects>
        <_>
          0 7 2 9 -1.</_>
        <_>
          1 7 1 9 2.</_></rects>
      <tilted>0</tilted></_>
    <_>
      <rects>
        <_>
          0 9 4 7 -1.</_>
        <_>
          2 9 2 7 2.</_></rects>
      <tilted>0</tilted></_>
    <_>
      <rects>
        <_>
          0 9 4 9 -1.</_>
        <_>
          2 9 2 9 2.</_></rects>
      <tilted>0</tilted></_>
    <_>
      <rects>
        <_>
          0 13 8 7 -1.</_>
        <_>
          4 13 4 7 2.</_></rects>
      <tilted>0</tilted></_>
    <_>
      <rects>
        <_>
          1 1 9 9 -1.</_>
        <_>
          4 4 3 3 9.</_></rects>
      <tilted>0</tilted></_>
    <_>
      <rects>
        <_>
          1 6 7 6 -1.</_>
        <_>
          1 8 7 2 3.</_></rects>
      <tilted>0</tilted></_>
    <_>
      <rects>
        <_>
          1 9 6 8 -1.</_>
        <_>
          3 9 2 8 3.</_></rects>
      <tilted>0</tilted></_>
    <_>
      <rects>
        <_>
          1 18 6 2 -1.</_>
        <_>
          4 18 3 2 2.</_></rects>
      <tilted>0</tilted></_>
    <_>
      <rects>
        <_>
          2 3 14 16 -1.</_>
        <_>
          2 7 14 8 2.</_></rects>
      <tilted>0</tilted></_>
    <_>
      <rects>
        <_>
          2 4 8 4 -1.</_>
        <_>
          4 4 4 4 2.</_></rects>
      <tilted>0</tilted></_>
    <_>
      <rects>
        <_>
          2 19 8 1 -1.</_>
        <_>
          6 19 4 1 2.</_></rects>
      <tilted>0</tilted></_>
    <_>
      <rects>
        <_>
          3 0 8 8 -1.</_>
        <_>
          7 0 4 8 2.</_></rects>
      <tilted>0</tilted></_>
    <_>
      <rects>
        <_>
          3 0 16 8 -1.</_>
        <_>
          3 2 16 4 2.</_></rects>
      <tilted>0</tilted></_>
    <_>
      <rects>
        <_>
          3 4 6 8 -1.</_>
        <_>
          3 8 6 4 2.</_></rects>
      <tilted>0</tilted></_>
    <_>
      <rects>
        <_>
          3 5 16 9 -1.</_>
        <_>
          3 8 16 3 3.</_></rects>
      <tilted>0</tilted></_>
    <_>
      <rects>
        <_>
          4 5 2 4 -1.</_>
        <_>
          3 6 2 2 2.</_></rects>
      <tilted>1</tilted></_>
    <_>
      <rects>
        <_>
          5 0 9 8 -1.</_>
        <_>
          8 0 3 8 3.</_></rects>
      <tilted>0</tilted></_>
    <_>
      <rects>
        <_>
          5 9 6 4 -1.</_>
        <_>
          5 9 3 2 2.</_>
        <_>
          8 11 3 2 2.</_></rects>
      <tilted>0</tilted></_>
    <_>
      <rects>
        <_>
          5 9 6 3 -1.</_>
        <_>
          5 9 3 3 2.</_></rects>
      <tilted>1</tilted></_>
    <_>
      <rects>
        <_>
          5 13 6 1 -1.</_>
        <_>
          7 15 2 1 3.</_></rects>
      <tilted>1</tilted></_>
    <_>
      <rects>
        <_>
          5 19 15 1 -1.</_>
        <_>
          10 19 5 1 3.</_></rects>
      <tilted>0</tilted></_>
    <_>
      <rects>
        <_>
          6 13 6 3 -1.</_>
        <_>
          6 14 6 1 3.</_></rects>
      <tilted>0</tilted></_>
    <_>
      <rects>
        <_>
          7 1 6 15 -1.</_>
        <_>
          9 6 2 5 9.</_></rects>
      <tilted>0</tilted></_>
    <_>
      <rects>
        <_>
          7 1 4 6 -1.</_>
        <_>
          7 3 4 2 3.</_></rects>
      <tilted>0</tilted></_>
    <_>
      <rects>
        <_>
          7 5 9 8 -1.</_>
        <_>
          7 7 9 4 2.</_></rects>
      <tilted>0</tilted></_>
    <_>
      <rects>
        <_>
          7 11 5 3 -1.</_>
        <_>
          7 12 5 1 3.</_></rects>
      <tilted>0</tilted></_>
    <_>
      <rects>
        <_>
          8 2 3 6 -1.</_>
        <_>
          6 4 3 2 3.</_></rects>
      <tilted>1</tilted></_>
    <_>
      <rects>
        <_>
          8 4 8 14 -1.</_>
        <_>
          8 4 4 7 2.</_>
        <_>
          12 11 4 7 2.</_></rects>
      <tilted>0</tilted></_>
    <_>
      <rects>
        <_>
          8 5 6 6 -1.</_>
        <_>
          6 7 6 2 3.</_></rects>
      <tilted>1</tilted></_>
    <_>
      <rects>
        <_>
          8 10 5 4 -1.</_>
        <_>
          8 11 5 2 2.</_></rects>
      <tilted>0</tilted></_>
    <_>
      <rects>
        <_>
          9 0 1 8 -1.</_>
        <_>
          7 2 1 4 2.</_></rects>
      <tilted>1</tilted></_>
    <_>
      <rects>
        <_>
          9 0 2 8 -1.</_>
        <_>
          7 2 2 4 2.</_></rects>
      <tilted>1</tilted></_>
    <_>
      <rects>
        <_>
          9 5 2 12 -1.</_>
        <_>
          9 11 2 6 2.</_></rects>
      <tilted>0</tilted></_>
    <_>
      <rects>
        <_>
          9 8 2 6 -1.</_>
        <_>
          9 11 2 3 2.</_></rects>
      <tilted>0</tilted></_>
    <_>
      <rects>
        <_>
          9 12 6 6 -1.</_>
        <_>
          12 12 3 6 2.</_></rects>
      <tilted>0</tilted></_>
    <_>
      <rects>
        <_>
          10 6 6 5 -1.</_>
        <_>
          12 6 2 5 3.</_></rects>
      <tilted>0</tilted></_>
    <_>
      <rects>
        <_>
          10 9 2 4 -1.</_>
        <_>
          9 10 2 2 2.</_></rects>
      <tilted>1</tilted></_>
    <_>
      <rects>
        <_>
          10 11 8 8 -1.</_>
        <_>
          10 15 8 4 2.</_></rects>
      <tilted>0</tilted></_>
    <_>
      <rects>
        <_>
          11 0 8 1 -1.</_>
        <_>
          13 2 4 1 2.</_></rects>
      <tilted>1</tilted></_>
    <_>
      <rects>
        <_>
          11 6 4 10 -1.</_>
        <_>
          11 6 2 10 2.</_></rects>
      <tilted>1</tilted></_>
    <_>
      <rects>
        <_>
          11 8 2 10 -1.</_>
        <_>
          11 8 1 10 2.</_></rects>
      <tilted>1</tilted></_>
    <_>
      <rects>
        <_>
          12 0 4 12 -1.</_>
        <_>
          12 4 4 4 3.</_></rects>
      <tilted>0</tilted></_>
    <_>
      <rects>
        <_>
          12 2 6 3 -1.</_>
        <_>
          14 4 2 3 3.</_></rects>
      <tilted>1</tilted></_>
    <_>
      <rects>
        <_>
          12 6 6 14 -1.</_>
        <_>
          12 6 3 7 2.</_>
        <_>
          15 13 3 7 2.</_></rects>
      <tilted>0</tilted></_>
    <_>
      <rects>
        <_>
          12 16 6 4 -1.</_>
        <_>
          12 16 3 2 2.</_>
        <_>
          15 18 3 2 2.</_></rects>
      <tilted>0</tilted></_>
    <_>
      <rects>
        <_>
          13 2 4 8 -1.</_>
        <_>
          11 4 4 4 2.</_></rects>
      <tilted>1</tilted></_>
    <_>
      <rects>
        <_>
          13 2 7 8 -1.</_>
        <_>
          11 4 7 4 2.</_></rects>
      <tilted>1</tilted></_>
    <_>
      <rects>
        <_>
          13 3 2 12 -1.</_>
        <_>
          13 9 2 6 2.</_></rects>
      <tilted>0</tilted></_>
    <_>
      <rects>
        <_>
          13 18 6 1 -1.</_>
        <_>
          16 18 3 1 2.</_></rects>
      <tilted>0</tilted></_>
    <_>
      <rects>
        <_>
          14 0 6 8 -1.</_>
        <_>
          14 0 3 4 2.</_>
        <_>
          17 4 3 4 2.</_></rects>
      <tilted>0</tilted></_>
    <_>
      <rects>
        <_>
          14 3 2 8 -1.</_>
        <_>
          12 5 2 4 2.</_></rects>
      <tilted>1</tilted></_>
    <_>
      <rects>
        <_>
          14 3 2 12 -1.</_>
        <_>
          14 7 2 4 3.</_></rects>
      <tilted>0</tilted></_>
    <_>
      <rects>
        <_>
          14 18 6 1 -1.</_>
        <_>
          17 18 3 1 2.</_></rects>
      <tilted>0</tilted></_>
    <_>
      <rects>
        <_>
          15 4 4 10 -1.</_>
        <_>
          15 4 2 5 2.</_>
        <_>
          17 9 2 5 2.</_></rects>
      <tilted>0</tilted></_>
    <_>
      <rects>
        <_>
          15 5 4 14 -1.</_>
        <_>
          15 12 4 7 2.</_></rects>
      <tilted>0</tilted></_>
    <_>
      <rects>
        <_>
          15 11 3 6 -1.</_>
        <_>
          15 11 3 3 2.</_></rects>
      <tilted>1</tilted></_>
    <_>
      <rects>
        <_>
          16 10 4 10 -1.</_>
        <_>
          18 10 2 10 2.</_></rects>
      <tilted>0</tilted></_>
    <_>
      <rects>
        <_>
          17 17 1 2 -1.</_>
        <_>
          17 18 1 1 2.</_></rects>
      <tilted>0</tilted></_>
    <_>
      <rects>
        <_>
          18 10 2 7 -1.</_>
        <_>
          19 10 1 7 2.</_></rects>
      <tilted>0</tilted></_>
    <_>
      <rects>
        <_>
          18 15 1 4 -1.</_>
        <_>
          18 17 1 2 2.</_></rects>
      <tilted>0</tilted></_>
    <_>
      <rects>
        <_>
          19 0 1 12 -1.</_>
        <_>
          19 3 1 6 2.</_></rects>
      <tilted>0</tilted></_></features></cascade>
</opencv_storage>
