<?xml version="1.0"?>
<opencv_storage>
<stage8>
  <maxWeakCount>8</maxWeakCount>
  <stageThreshold>-1.7437669038772583e+00</stageThreshold>
  <weakClassifiers>
    <_>
      <internalNodes>
        0 -1 106865 8.6711943149566650e-02</internalNodes>
      <leafValues>
        -6.0891091823577881e-01 6.2121212482452393e-01</leafValues></_>
    <_>
      <internalNodes>
        0 -1 8863 2.4287983775138855e-02</internalNodes>
      <leafValues>
        -4.8306334018707275e-01 6.3264554738998413e-01</leafValues></_>
    <_>
      <internalNodes>
        0 -1 105489 -3.0528141651302576e-03</internalNodes>
      <leafValues>
        4.4876670837402344e-01 -5.3388506174087524e-01</leafValues></_>
    <_>
      <internalNodes>
        0 -1 101186 4.4144643470644951e-03</internalNodes>
      <leafValues>
        2.5489294528961182e-01 -9.0673172473907471e-01</leafValues></_>
    <_>
      <internalNodes>
        0 -1 15147 3.6935991374775767e-04</internalNodes>
      <leafValues>
        -8.9665985107421875e-01 2.3949752748012543e-01</leafValues></_>
    <_>
      <internalNodes>
        0 -1 80044 -1.5518892556428909e-02</internalNodes>
      <leafValues>
        4.0309628844261169e-01 -5.4815590381622314e-01</leafValues></_>
    <_>
      <internalNodes>
        0 -1 53434 -1.4967677183449268e-02</internalNodes>
      <leafValues>
        6.3464421033859253e-01 -3.6656036972999573e-01</leafValues></_>
    <_>
      <internalNodes>
        0 -1 124818 -1.9545841496437788e-03</internalNodes>
      <leafValues>
        -7.7067059278488159e-01 3.0241817235946655e-01</leafValues></_></weakClassifiers></stage8>
</opencv_storage>
