<?xml version="1.0"?>
<opencv_storage>
<cascade>
  <stageType>BOOST</stageType>
  <featureType>HAAR</featureType>
  <height>20</height>
  <width>20</width>
  <stageParams>
    <boostType>GAB</boostType>
    <minHitRate>9.9500000476837158e-01</minHitRate>
    <maxFalseAlarm>5.0000000000000000e-01</maxFalseAlarm>
    <weightTrimRate>9.4999999999999996e-01</weightTrimRate>
    <maxDepth>1</maxDepth>
    <maxWeakCount>100</maxWeakCount></stageParams>
  <featureParams>
    <maxCatCount>0</maxCatCount>
    <featSize>1</featSize>
    <mode>ALL</mode></featureParams>
  <stageNum>3</stageNum>
  <stages>
    <!-- stage 0 -->
    <_>
      <maxWeakCount>3</maxWeakCount>
      <stageThreshold>-9.1710859537124634e-01</stageThreshold>
      <weakClassifiers>
        <_>
          <internalNodes>
            0 -1 6 -8.3957007154822350e-03</internalNodes>
          <leafValues>
            8.3999997377395630e-01 -8.3999997377395630e-01</leafValues></_>
        <_>
          <internalNodes>
            0 -1 3 7.5319241732358932e-03</internalNodes>
          <leafValues>
            -8.5972398519515991e-01 8.1021660566329956e-01</leafValues></_>
        <_>
          <internalNodes>
            0 -1 2 3.0487988144159317e-02</internalNodes>
          <leafValues>
            -8.3798784017562866e-01 7.8261542320251465e-01</leafValues></_></weakClassifiers></_>
    <!-- stage 1 -->
    <_>
      <maxWeakCount>2</maxWeakCount>
      <stageThreshold>-6.4141467213630676e-02</stageThreshold>
      <weakClassifiers>
        <_>
          <internalNodes>
            0 -1 4 -3.4603995736688375e-03</internalNodes>
          <leafValues>
            8.3068782091140747e-01 -7.4407583475112915e-01</leafValues></_>
        <_>
          <internalNodes>
            0 -1 5 1.1951848864555359e-02</internalNodes>
          <leafValues>
            -8.9482927322387695e-01 7.0275169610977173e-01</leafValues></_></weakClassifiers></_>
    <!-- stage 2 -->
    <_>
      <maxWeakCount>2</maxWeakCount>
      <stageThreshold>-6.7939698696136475e-02</stageThreshold>
      <weakClassifiers>
        <_>
          <internalNodes>
            0 -1 0 1.3888323679566383e-02</internalNodes>
          <leafValues>
            -9.5789474248886108e-01 8.6666667461395264e-01</leafValues></_>
        <_>
          <internalNodes>
            0 -1 1 5.2842561155557632e-02</internalNodes>
          <leafValues>
            -8.6622011661529541e-01 8.8995504379272461e-01</leafValues></_></weakClassifiers></_></stages>
  <features>
    <_>
      <rects>
        <_>
          0 2 12 6 -1.</_>
        <_>
          3 2 6 6 2.</_></rects>
      <tilted>0</tilted></_>
    <_>
      <rects>
        <_>
          2 0 6 20 -1.</_>
        <_>
          2 5 6 10 2.</_></rects>
      <tilted>0</tilted></_>
    <_>
      <rects>
        <_>
          4 0 13 6 -1.</_>
        <_>
          4 3 13 3 2.</_></rects>
      <tilted>0</tilted></_>
    <_>
      <rects>
        <_>
          4 11 1 4 -1.</_>
        <_>
          4 11 1 2 2.</_></rects>
      <tilted>1</tilted></_>
    <_>
      <rects>
        <_>
          5 18 9 2 -1.</_>
        <_>
          5 19 9 1 2.</_></rects>
      <tilted>0</tilted></_>
    <_>
      <rects>
        <_>
          16 11 4 2 -1.</_>
        <_>
          16 11 2 2 2.</_></rects>
      <tilted>1</tilted></_>
    <_>
      <rects>
        <_>
          16 11 2 6 -1.</_>
        <_>
          16 14 2 3 2.</_></rects>
      <tilted>0</tilted></_></features></cascade>
</opencv_storage>
